6
-1.7756210161397208, -2.337972248008745, -3.3666833287406357, 0, 2.8492723491675935
-2.329278499646148, 0.34467037434480474, 0, -2.0690370909638007, -3.6201142504766732
-2.9270453323137975, 0, -3.6850843975769507, 0, 4.407084600965328
0, -1.2029645337090087, -3.5221486579300785, 4.671576239541192, 0
-2.4081301235971297, 2.549508147572636, -1.174698594229839, 4.598351748021255, -3.0308434637419754
2.3699814377506296, 0, -1.8748168256858833, 0, -1.9824649962930083
0.2467775107841188, -1.3505812110488744, 3.8854134411625942, -1.8493882045297148, -3.6199790987772826
0, -0.3817063995308132, -1.0115349779302183, 4.836452558068281, -0.5239932554646551
-1.877512319527169, -2.9923433294998842, 4.650298179149161, 5.11758829839086, 5.5405127803323495
-3.299374847081422, 0.038560064666397054, -3.043274116128325, 4.465514706654279, 2.876467052384024
-3.1444005321241697, -3.649657518420235, 1.985236727487787, 3.9319737057326787, 0
4.8022615744133255, -1.1505454008417435, 0.13446802903801203, 0.10952457304583074, 2.5105814434496416
2.517542650062601, -0.2762772143685974, -1.1671889026687898, -1.6009762909989087, 0
5.446543859580414, -0.7358515009433875, 0, 0, 0
-1.6612557307080422, 5.88528142874031, 4.7599169292699415, -2.0001906287527103, -1.3640900187990308
3.753908859057436, 0, -0.8198796761012117, -3.2319307846530094, 0
3.5200470137074804, 4.397610082237616, -0.6942588152622173, 3.9506889700167447, 0
0.1574496051011236, 0, 0, 1.2747155269952914, 0
0, -1.1811843747029735, 2.7349409162158143, 5.7845346104126545, -1.5976838072247332
-3.5511328575417176, 0, 5.680606440210115, 0, 1.2841616358206966
1.0565278137855412, 0, -1.2683542171751991, 2.411355692311883, 1.2144858213708272
-2.3609455669055457, 0.4234421329638609, 0, 5.581652387698227, 0
1.6740171172825926, 2.4125632808892146, -2.1550886681044945, -0.9713329343644559, 4.3489429219821005
1.366656812577939, 0.2129518700654991, 0, 1.2964952880766418, -2.1342921486480946
0.43022698699792716, 0, 0, 0, 0
0, 3.9069234437741285, 3.9108215561672557, 5.723387543252839, 1.3244246729442857
-0.9044485504097866, 1.2951199487636105, 0.2674530298400697, -3.6964767343387424, 2.9886275245325518
1.8043512062051885, -1.4961968581984628, -2.436374744202886, 4.952778511686214, 2.071981776408534
-2.5594495780819937, -3.622835693349824, 0.28190701499079296, 5.329170507373966, -1.5186660832970933
0, 0, 0
0, -3.129371684303582, 0
0, -1.477768640489022, 1.7122542942789023
0.35605032900116385, 0.6281468747964913, -2.5295384658678253
-1.7742698218500128, -3.763819374314302, -3.780813424272259
